digraph Tree {
node [shape=box, style="filled, rounded", color="black", fontname=helvetica] ;
edge [fontname=helvetica] ;
0 [label="alcohol <= 10.85\nentropy = 1.0\nsamples = 1500\nvalue = [757, 743]", fillcolor="#fffdfb"] ;
1 [label="volatile_acidity <= 0.257\nentropy = 0.977\nsamples = 1127\nvalue = [664, 463]", fillcolor="#f7d9c3"] ;
0 -> 1 [labeldistance=2.5, labelangle=45, headlabel="True"] ;
2 [label="citric_acid <= 0.2\nentropy = 0.986\nsamples = 483\nvalue = [208, 275]", fillcolor="#cfe7f9"] ;
1 -> 2 ;
3 [label="entropy = 0.0\nsamples = 9\nvalue = [9, 0]", fillcolor="#e58139"] ;
2 -> 3 ;
4 [label="free_sulfur_dioxide <= 25.5\nentropy = 0.981\nsamples = 474\nvalue = [199, 275]", fillcolor="#c8e4f8"] ;
2 -> 4 ;
5 [label="entropy = 0.989\nsamples = 119\nvalue = [67, 52]", fillcolor="#f9e3d3"] ;
4 -> 5 ;
6 [label="entropy = 0.952\nsamples = 355\nvalue = [132, 223]", fillcolor="#aed7f4"] ;
4 -> 6 ;
7 [label="alcohol <= 9.55\nentropy = 0.871\nsamples = 644\nvalue = [456, 188]", fillcolor="#f0b58b"] ;
1 -> 7 ;
8 [label="chlorides <= 0.056\nentropy = 0.723\nsamples = 334\nvalue = [267, 67]", fillcolor="#eca16b"] ;
7 -> 8 ;
9 [label="entropy = 0.808\nsamples = 230\nvalue = [173, 57]", fillcolor="#eeab7a"] ;
8 -> 9 ;
10 [label="entropy = 0.457\nsamples = 104\nvalue = [94, 10]", fillcolor="#e88e4e"] ;
8 -> 10 ;
11 [label="free_sulfur_dioxide <= 21.5\nentropy = 0.965\nsamples = 310\nvalue = [189, 121]", fillcolor="#f6d2b8"] ;
7 -> 11 ;
12 [label="entropy = 0.738\nsamples = 96\nvalue = [76, 20]", fillcolor="#eca26d"] ;
11 -> 12 ;
13 [label="entropy = 0.998\nsamples = 214\nvalue = [113, 101]", fillcolor="#fcf2ea"] ;
11 -> 13 ;
14 [label="free_sulfur_dioxide <= 11.5\nentropy = 0.81\nsamples = 373\nvalue = [93, 280]", fillcolor="#7bbeee"] ;
0 -> 14 [labeldistance=2.5, labelangle=-45, headlabel="False"] ;
15 [label="free_sulfur_dioxide <= 5.5\nentropy = 0.811\nsamples = 40\nvalue = [30, 10]", fillcolor="#eeab7b"] ;
14 -> 15 ;
16 [label="entropy = 0.0\nsamples = 9\nvalue = [9, 0]", fillcolor="#e58139"] ;
15 -> 16 ;
17 [label="total_sulfur_dioxide <= 50.5\nentropy = 0.907\nsamples = 31\nvalue = [21, 10]", fillcolor="#f1bd97"] ;
15 -> 17 ;
18 [label="entropy = 0.0\nsamples = 2\nvalue = [0, 2]", fillcolor="#399de5"] ;
17 -> 18 ;
19 [label="entropy = 0.85\nsamples = 29\nvalue = [21, 8]", fillcolor="#efb184"] ;
17 -> 19 ;
20 [label="alcohol <= 12.05\nentropy = 0.7\nsamples = 333\nvalue = [63, 270]", fillcolor="#67b4eb"] ;
14 -> 20 ;
21 [label="pH <= 2.98\nentropy = 0.818\nsamples = 220\nvalue = [56, 164]", fillcolor="#7dbeee"] ;
20 -> 21 ;
22 [label="entropy = 0.918\nsamples = 15\nvalue = [10, 5]", fillcolor="#f2c09c"] ;
21 -> 22 ;
23 [label="entropy = 0.768\nsamples = 205\nvalue = [46, 159]", fillcolor="#72b9ed"] ;
21 -> 23 ;
24 [label="total_sulfur_dioxide <= 123.5\nentropy = 0.335\nsamples = 113\nvalue = [7, 106]", fillcolor="#46a3e7"] ;
20 -> 24 ;
25 [label="entropy = 0.503\nsamples = 63\nvalue = [7, 56]", fillcolor="#52a9e8"] ;
24 -> 25 ;
26 [label="entropy = 0.0\nsamples = 50\nvalue = [0, 50]", fillcolor="#399de5"] ;
24 -> 26 ;
}